{
    "layers": [
        {
            "activationType": 1,
            "biases": [
                0,
                0,
                0,
                0,
                0,
                0,
                0,
                0,
                0
            ],
            "isInputLayer": true,
            "weights": [
                [],
                [],
                [],
                [],
                [],
                [],
                [],
                [],
                []
            ]
        },
        {
            "activationType": 1,
            "biases": [
                0,
                0,
                0,
                0
            ],
            "isInputLayer": false,
            "weights": [
                [
                    -0.2402312427768849,
                    0.6082938494640799,
                    -0.8594484287993598,
                    -0.8689912285578338,
                    -0.24134304401767093,
                    -0.6020441612514951,
                    0.539428212066263,
                    -0.3132834636925226,
                    -0.05073602682340428
                ],
                [
                    0.29843086937238494,
                    0.6923421694347696,
                    0.37837640830386676,
                    0.23860002705546202,
                    0.6879595336610063,
                    0.10173061143621553,
                    0.09586393275726746,
                    0.335178187043617,
                    -0.10176972634996972
                ],
                [
                    -0.98887567413004,
                    0.8714859045467738,
                    0.019271637098504435,
                    -0.9758530468270072,
                    0.47446851747996743,
                    0.8702839982283328,
                    -0.031176743471974966,
                    -0.87959985038831,
                    -0.47046678247623297
                ],
                [
                    -0.2215391094213388,
                    0.9372773258230926,
                    -0.7263770891711305,
                    -0.39407727572486717,
                    0.5773929188157452,
                    0.14557215479862085,
                    0.2522152207064621,
                    0.5772949415519071,
                    0.7490093296126119
                ]
            ]
        },
        {
            "activationType": 1,
            "biases": [
                0.07436575750486464,
                -1.3871197636138664,
                2.3176418078237315,
                1.0974680757764028
            ],
            "isInputLayer": false,
            "weights": [
                [
                    -10.307842666557704,
                    -0.43368618766061323,
                    0.5809606615537487,
                    6.98866920069045
                ],
                [
                    1.0162220226434215,
                    0.9797008943688502,
                    -4.99916781104808,
                    5.310423660377881
                ],
                [
                    7.194285438285293,
                    3.225895973777913,
                    -8.065505481867383,
                    -4.232145476090503
                ],
                [
                    2.781052957306238,
                    0.8812926494545189,
                    9.027673401375889,
                    -4.498970742367983
                ]
            ]
        },
        {
            "activationType": 1,
            "biases": [
                -0.7521290005527279,
                -3.8192052622061285,
                -1.8255141305067273,
                3.0753076566855064
            ],
            "isInputLayer": false,
            "weights": [
                [
                    -2.3192605871920424,
                    4.000132195293403,
                    12.351749049451955,
                    -9.263437796881375
                ],
                [
                    6.673517877528833,
                    4.467599775015767,
                    -10.880256542811535,
                    1.2180863482391835
                ],
                [
                    1.2155726944222975,
                    -5.627607017359072,
                    -4.867388365620208,
                    0.4633430635462712
                ],
                [
                    -7.028183800331772,
                    -7.060482367929534,
                    -2.1779553612781934,
                    6.13920550339044
                ]
            ]
        }
    ]
}